<?xml version="1.0"?>
<opencv_storage>
<cascade>
  <stageType>BOOST</stageType>
  <featureType>HAAR</featureType>
  <height>50</height>
  <width>50</width>
  <stageParams>
    <boostType>GAB</boostType>
    <minHitRate>9.9500000476837158e-01</minHitRate>
    <maxFalseAlarm>5.0000000000000000e-01</maxFalseAlarm>
    <weightTrimRate>9.4999999999999996e-01</weightTrimRate>
    <maxDepth>1</maxDepth>
    <maxWeakCount>100</maxWeakCount></stageParams>
  <featureParams>
    <maxCatCount>0</maxCatCount>
    <featSize>1</featSize>
    <mode>BASIC</mode></featureParams>
  <stageNum>14</stageNum>
  <stages>
    <!-- stage 0 -->
    <_>
      <maxWeakCount>2</maxWeakCount>
      <stageThreshold>-1.2780687212944031e-01</stageThreshold>
      <weakClassifiers>
        <_>
          <internalNodes>
            0 -1 37 1.5703177079558372e-02</internalNodes>
          <leafValues>
            -8.5607939958572388e-01 8.3949315547943115e-01</leafValues></_>
        <_>
          <internalNodes>
            0 -1 19 2.1513916552066803e-02</internalNodes>
          <leafValues>
            -8.4750354290008545e-01 7.2827255725860596e-01</leafValues></_></weakClassifiers></_>
    <!-- stage 1 -->
    <_>
      <maxWeakCount>2</maxWeakCount>
      <stageThreshold>-3.2276350259780884e-01</stageThreshold>
      <weakClassifiers>
        <_>
          <internalNodes>
            0 -1 3 -1.0065092938020825e-03</internalNodes>
          <leafValues>
            7.1510791778564453e-01 -9.6097558736801147e-01</leafValues></_>
        <_>
          <internalNodes>
            0 -1 24 -3.3950142096728086e-03</internalNodes>
          <leafValues>
            6.3821208477020264e-01 -7.6971250772476196e-01</leafValues></_></weakClassifiers></_>
    <!-- stage 2 -->
    <_>
      <maxWeakCount>3</maxWeakCount>
      <stageThreshold>-9.2669242620468140e-01</stageThreshold>
      <weakClassifiers>
        <_>
          <internalNodes>
            0 -1 21 7.2577595710754395e-03</internalNodes>
          <leafValues>
            -8.9437818527221680e-01 6.7439657449722290e-01</leafValues></_>
        <_>
          <internalNodes>
            0 -1 33 3.5788337700068951e-03</internalNodes>
          <leafValues>
            -7.6055800914764404e-01 5.8389574289321899e-01</leafValues></_>
        <_>
          <internalNodes>
            0 -1 43 1.8826777115464211e-02</internalNodes>
          <leafValues>
            -8.4053099155426025e-01 4.4813117384910583e-01</leafValues></_></weakClassifiers></_>
    <!-- stage 3 -->
    <_>
      <maxWeakCount>5</maxWeakCount>
      <stageThreshold>-1.0664587020874023e+00</stageThreshold>
      <weakClassifiers>
        <_>
          <internalNodes>
            0 -1 20 3.7193104624748230e-02</internalNodes>
          <leafValues>
            -6.8217056989669800e-01 7.4143302440643311e-01</leafValues></_>
        <_>
          <internalNodes>
            0 -1 46 1.1310787522234023e-04</internalNodes>
          <leafValues>
            -9.2602592706680298e-01 4.8626571893692017e-01</leafValues></_>
        <_>
          <internalNodes>
            0 -1 27 -1.2630820274353027e-02</internalNodes>
          <leafValues>
            6.2661290168762207e-01 -6.1905825138092041e-01</leafValues></_>
        <_>
          <internalNodes>
            0 -1 35 3.1127346679568291e-02</internalNodes>
          <leafValues>
            -6.5209674835205078e-01 5.7597881555557251e-01</leafValues></_>
        <_>
          <internalNodes>
            0 -1 10 -6.7115652200300246e-05</internalNodes>
          <leafValues>
            4.0060111880302429e-01 -9.7011214494705200e-01</leafValues></_></weakClassifiers></_>
    <!-- stage 4 -->
    <_>
      <maxWeakCount>4</maxWeakCount>
      <stageThreshold>-3.0512952804565430e-01</stageThreshold>
      <weakClassifiers>
        <_>
          <internalNodes>
            0 -1 36 1.0872794315218925e-02</internalNodes>
          <leafValues>
            -8.1558030843734741e-01 6.8227910995483398e-01</leafValues></_>
        <_>
          <internalNodes>
            0 -1 8 2.8537798672914505e-02</internalNodes>
          <leafValues>
            -4.2354366183280945e-01 8.1945532560348511e-01</leafValues></_>
        <_>
          <internalNodes>
            0 -1 4 -5.1187736971769482e-05</internalNodes>
          <leafValues>
            4.5949167013168335e-01 -9.1843324899673462e-01</leafValues></_>
        <_>
          <internalNodes>
            0 -1 0 6.4443081617355347e-02</internalNodes>
          <leafValues>
            -6.9945228099822998e-01 4.7450274229049683e-01</leafValues></_></weakClassifiers></_>
    <!-- stage 5 -->
    <_>
      <maxWeakCount>5</maxWeakCount>
      <stageThreshold>-8.5488533973693848e-01</stageThreshold>
      <weakClassifiers>
        <_>
          <internalNodes>
            0 -1 48 9.4820588856237009e-06</internalNodes>
          <leafValues>
            -8.6998087167739868e-01 6.2241619825363159e-01</leafValues></_>
        <_>
          <internalNodes>
            0 -1 25 1.4872684143483639e-02</internalNodes>
          <leafValues>
            -6.2782257795333862e-01 5.6687188148498535e-01</leafValues></_>
        <_>
          <internalNodes>
            0 -1 49 1.2906620395369828e-04</internalNodes>
          <leafValues>
            4.4408389925956726e-01 -7.8205877542495728e-01</leafValues></_>
        <_>
          <internalNodes>
            0 -1 23 3.0129101127386093e-02</internalNodes>
          <leafValues>
            -5.2880460023880005e-01 6.7448288202285767e-01</leafValues></_>
        <_>
          <internalNodes>
            0 -1 29 -7.6017957180738449e-03</internalNodes>
          <leafValues>
            4.6138444542884827e-01 -6.7642045021057129e-01</leafValues></_></weakClassifiers></_>
    <!-- stage 6 -->
    <_>
      <maxWeakCount>4</maxWeakCount>
      <stageThreshold>-5.1107943058013916e-01</stageThreshold>
      <weakClassifiers>
        <_>
          <internalNodes>
            0 -1 42 4.7872588038444519e-03</internalNodes>
          <leafValues>
            -8.7624752521514893e-01 6.0891312360763550e-01</leafValues></_>
        <_>
          <internalNodes>
            0 -1 16 1.2944460846483707e-02</internalNodes>
          <leafValues>
            -6.0421115159988403e-01 5.6199204921722412e-01</leafValues></_>
        <_>
          <internalNodes>
            0 -1 47 1.8686918338062242e-05</internalNodes>
          <leafValues>
            -9.3399566411972046e-01 4.0315467119216919e-01</leafValues></_>
        <_>
          <internalNodes>
            0 -1 41 1.9638091325759888e-03</internalNodes>
          <leafValues>
            -5.9997862577438354e-01 5.4126125574111938e-01</leafValues></_></weakClassifiers></_>
    <!-- stage 7 -->
    <_>
      <maxWeakCount>3</maxWeakCount>
      <stageThreshold>-1.4783560764044523e-03</stageThreshold>
      <weakClassifiers>
        <_>
          <internalNodes>
            0 -1 18 -9.1882444394286722e-05</internalNodes>
          <leafValues>
            6.2654030323028564e-01 -7.1525424718856812e-01</leafValues></_>
        <_>
          <internalNodes>
            0 -1 6 1.0059065971290693e-04</internalNodes>
          <leafValues>
            3.9387625455856323e-01 -8.8521236181259155e-01</leafValues></_>
        <_>
          <internalNodes>
            0 -1 38 -4.4891622383147478e-04</internalNodes>
          <leafValues>
            3.1989961862564087e-01 -8.6390072107315063e-01</leafValues></_></weakClassifiers></_>
    <!-- stage 8 -->
    <_>
      <maxWeakCount>3</maxWeakCount>
      <stageThreshold>7.8177720308303833e-02</stageThreshold>
      <weakClassifiers>
        <_>
          <internalNodes>
            0 -1 2 -5.3108939027879387e-05</internalNodes>
          <leafValues>
            6.6386556625366211e-01 -6.5435743331909180e-01</leafValues></_>
        <_>
          <internalNodes>
            0 -1 44 -4.3844757601618767e-04</internalNodes>
          <leafValues>
            -8.4310305118560791e-01 4.0494367480278015e-01</leafValues></_>
        <_>
          <internalNodes>
            0 -1 12 -1.3393124099820852e-03</internalNodes>
          <leafValues>
            -9.6513652801513672e-01 3.2759150862693787e-01</leafValues></_></weakClassifiers></_>
    <!-- stage 9 -->
    <_>
      <maxWeakCount>4</maxWeakCount>
      <stageThreshold>-5.8161443471908569e-01</stageThreshold>
      <weakClassifiers>
        <_>
          <internalNodes>
            0 -1 14 -3.0448083998635411e-04</internalNodes>
          <leafValues>
            5.9802603721618652e-01 -9.1932058334350586e-01</leafValues></_>
        <_>
          <internalNodes>
            0 -1 11 7.6367967994883657e-04</internalNodes>
          <leafValues>
            3.7347900867462158e-01 -9.0329307317733765e-01</leafValues></_>
        <_>
          <internalNodes>
            0 -1 34 -1.5827685128897429e-03</internalNodes>
          <leafValues>
            4.7811570763587952e-01 -6.1517482995986938e-01</leafValues></_>
        <_>
          <internalNodes>
            0 -1 26 1.9885703921318054e-02</internalNodes>
          <leafValues>
            -3.8234812021255493e-01 7.6288348436355591e-01</leafValues></_></weakClassifiers></_>
    <!-- stage 10 -->
    <_>
      <maxWeakCount>3</maxWeakCount>
      <stageThreshold>-2.0044469833374023e-01</stageThreshold>
      <weakClassifiers>
        <_>
          <internalNodes>
            0 -1 45 3.6802876275032759e-04</internalNodes>
          <leafValues>
            -9.4491523504257202e-01 6.0412925481796265e-01</leafValues></_>
        <_>
          <internalNodes>
            0 -1 9 -3.1872201361693442e-05</internalNodes>
          <leafValues>
            3.1395182013511658e-01 -9.7655314207077026e-01</leafValues></_>
        <_>
          <internalNodes>
            0 -1 31 -7.9893134534358978e-03</internalNodes>
          <leafValues>
            4.3051874637603760e-01 -6.4440256357192993e-01</leafValues></_></weakClassifiers></_>
    <!-- stage 11 -->
    <_>
      <maxWeakCount>5</maxWeakCount>
      <stageThreshold>-8.6970001459121704e-01</stageThreshold>
      <weakClassifiers>
        <_>
          <internalNodes>
            0 -1 50 7.1454874159826431e-06</internalNodes>
          <leafValues>
            -6.7892974615097046e-01 6.2131303548812866e-01</leafValues></_>
        <_>
          <internalNodes>
            0 -1 32 3.3517004922032356e-03</internalNodes>
          <leafValues>
            -7.5688862800598145e-01 4.2768326401710510e-01</leafValues></_>
        <_>
          <internalNodes>
            0 -1 40 1.8834921065717936e-03</internalNodes>
          <leafValues>
            -6.3436949253082275e-01 4.8103472590446472e-01</leafValues></_>
        <_>
          <internalNodes>
            0 -1 51 -2.0418722182512283e-02</internalNodes>
          <leafValues>
            6.7297035455703735e-01 -4.3697243928909302e-01</leafValues></_>
        <_>
          <internalNodes>
            0 -1 30 -1.3095298781991005e-03</internalNodes>
          <leafValues>
            3.6281302571296692e-01 -7.7818673849105835e-01</leafValues></_></weakClassifiers></_>
    <!-- stage 12 -->
    <_>
      <maxWeakCount>5</maxWeakCount>
      <stageThreshold>-7.2519105672836304e-01</stageThreshold>
      <weakClassifiers>
        <_>
          <internalNodes>
            0 -1 13 -1.2597176828421652e-04</internalNodes>
          <leafValues>
            5.5206972360610962e-01 -9.0617281198501587e-01</leafValues></_>
        <_>
          <internalNodes>
            0 -1 7 -2.1555188577622175e-03</internalNodes>
          <leafValues>
            -8.7632888555526733e-01 3.3574539422988892e-01</leafValues></_>
        <_>
          <internalNodes>
            0 -1 1 -4.5874831266701221e-04</internalNodes>
          <leafValues>
            -8.5027700662612915e-01 2.5391572713851929e-01</leafValues></_>
        <_>
          <internalNodes>
            0 -1 5 3.5067228600382805e-04</internalNodes>
          <leafValues>
            2.6772919297218323e-01 -8.8566964864730835e-01</leafValues></_>
        <_>
          <internalNodes>
            0 -1 39 -5.4234004346653819e-04</internalNodes>
          <leafValues>
            2.3082205653190613e-01 -8.6226838827133179e-01</leafValues></_></weakClassifiers></_>
    <!-- stage 13 -->
    <_>
      <maxWeakCount>5</maxWeakCount>
      <stageThreshold>-1.3160200417041779e-01</stageThreshold>
      <weakClassifiers>
        <_>
          <internalNodes>
            0 -1 22 2.4301195517182350e-02</internalNodes>
          <leafValues>
            -8.0869567394256592e-01 5.6785714626312256e-01</leafValues></_>
        <_>
          <internalNodes>
            0 -1 52 -3.3707481343299150e-03</internalNodes>
          <leafValues>
            5.5566567182540894e-01 -4.9864327907562256e-01</leafValues></_>
        <_>
          <internalNodes>
            0 -1 17 -1.5058268036227673e-04</internalNodes>
          <leafValues>
            4.8367190361022949e-01 -6.3958305120468140e-01</leafValues></_>
        <_>
          <internalNodes>
            0 -1 28 -4.6477266587316990e-03</internalNodes>
          <leafValues>
            4.8643326759338379e-01 -6.1769503355026245e-01</leafValues></_>
        <_>
          <internalNodes>
            0 -1 15 -3.7176159094087780e-04</internalNodes>
          <leafValues>
            -9.7870808839797974e-01 2.7457776665687561e-01</leafValues></_></weakClassifiers></_></stages>
  <features>
    <_>
      <rects>
        <_>
          1 19 44 16 -1.</_>
        <_>
          23 19 22 16 2.</_></rects>
      <tilted>0</tilted></_>
    <_>
      <rects>
        <_>
          6 22 7 9 -1.</_>
        <_>
          6 25 7 3 3.</_></rects>
      <tilted>0</tilted></_>
    <_>
      <rects>
        <_>
          7 24 2 3 -1.</_>
        <_>
          8 24 1 3 2.</_></rects>
      <tilted>0</tilted></_>
    <_>
      <rects>
        <_>
          7 25 8 3 -1.</_>
        <_>
          11 25 4 3 2.</_></rects>
      <tilted>0</tilted></_>
    <_>
      <rects>
        <_>
          8 22 2 5 -1.</_>
        <_>
          9 22 1 5 2.</_></rects>
      <tilted>0</tilted></_>
    <_>
      <rects>
        <_>
          8 23 4 6 -1.</_>
        <_>
          8 25 4 2 3.</_></rects>
      <tilted>0</tilted></_>
    <_>
      <rects>
        <_>
          8 24 2 6 -1.</_>
        <_>
          8 24 1 3 2.</_>
        <_>
          9 27 1 3 2.</_></rects>
      <tilted>0</tilted></_>
    <_>
      <rects>
        <_>
          8 25 6 3 -1.</_>
        <_>
          11 25 3 3 2.</_></rects>
      <tilted>0</tilted></_>
    <_>
      <rects>
        <_>
          9 0 31 10 -1.</_>
        <_>
          9 5 31 5 2.</_></rects>
      <tilted>0</tilted></_>
    <_>
      <rects>
        <_>
          9 22 2 5 -1.</_>
        <_>
          10 22 1 5 2.</_></rects>
      <tilted>0</tilted></_>
    <_>
      <rects>
        <_>
          9 29 4 2 -1.</_>
        <_>
          11 29 2 2 2.</_></rects>
      <tilted>0</tilted></_>
    <_>
      <rects>
        <_>
          10 23 2 12 -1.</_>
        <_>
          10 27 2 4 3.</_></rects>
      <tilted>0</tilted></_>
    <_>
      <rects>
        <_>
          10 23 4 12 -1.</_>
        <_>
          10 27 4 4 3.</_></rects>
      <tilted>0</tilted></_>
    <_>
      <rects>
        <_>
          10 24 4 3 -1.</_>
        <_>
          12 24 2 3 2.</_></rects>
      <tilted>0</tilted></_>
    <_>
      <rects>
        <_>
          10 27 4 8 -1.</_>
        <_>
          12 27 2 8 2.</_></rects>
      <tilted>0</tilted></_>
    <_>
      <rects>
        <_>
          10 28 4 1 -1.</_>
        <_>
          12 28 2 1 2.</_></rects>
      <tilted>0</tilted></_>
    <_>
      <rects>
        <_>
          11 11 20 12 -1.</_>
        <_>
          11 11 10 6 2.</_>
        <_>
          21 17 10 6 2.</_></rects>
      <tilted>0</tilted></_>
    <_>
      <rects>
        <_>
          11 15 4 4 -1.</_>
        <_>
          13 15 2 4 2.</_></rects>
      <tilted>0</tilted></_>
    <_>
      <rects>
        <_>
          12 27 4 4 -1.</_>
        <_>
          14 27 2 4 2.</_></rects>
      <tilted>0</tilted></_>
    <_>
      <rects>
        <_>
          14 18 14 19 -1.</_>
        <_>
          21 18 7 19 2.</_></rects>
      <tilted>0</tilted></_>
    <_>
      <rects>
        <_>
          14 20 21 15 -1.</_>
        <_>
          21 20 7 15 3.</_></rects>
      <tilted>0</tilted></_>
    <_>
      <rects>
        <_>
          15 11 26 6 -1.</_>
        <_>
          28 11 13 6 2.</_></rects>
      <tilted>0</tilted></_>
    <_>
      <rects>
        <_>
          16 6 18 30 -1.</_>
        <_>
          22 6 6 30 3.</_></rects>
      <tilted>0</tilted></_>
    <_>
      <rects>
        <_>
          17 1 15 15 -1.</_>
        <_>
          17 6 15 5 3.</_></rects>
      <tilted>0</tilted></_>
    <_>
      <rects>
        <_>
          17 8 13 6 -1.</_>
        <_>
          17 11 13 3 2.</_></rects>
      <tilted>0</tilted></_>
    <_>
      <rects>
        <_>
          18 26 17 15 -1.</_>
        <_>
          18 31 17 5 3.</_></rects>
      <tilted>0</tilted></_>
    <_>
      <rects>
        <_>
          19 1 17 8 -1.</_>
        <_>
          19 5 17 4 2.</_></rects>
      <tilted>0</tilted></_>
    <_>
      <rects>
        <_>
          19 32 16 10 -1.</_>
        <_>
          19 37 16 5 2.</_></rects>
      <tilted>0</tilted></_>
    <_>
      <rects>
        <_>
          21 7 13 6 -1.</_>
        <_>
          21 10 13 3 2.</_></rects>
      <tilted>0</tilted></_>
    <_>
      <rects>
        <_>
          21 19 5 26 -1.</_>
        <_>
          21 32 5 13 2.</_></rects>
      <tilted>0</tilted></_>
    <_>
      <rects>
        <_>
          22 8 6 6 -1.</_>
        <_>
          22 11 6 3 2.</_></rects>
      <tilted>0</tilted></_>
    <_>
      <rects>
        <_>
          22 32 9 10 -1.</_>
        <_>
          22 37 9 5 2.</_></rects>
      <tilted>0</tilted></_>
    <_>
      <rects>
        <_>
          23 11 3 14 -1.</_>
        <_>
          23 18 3 7 2.</_></rects>
      <tilted>0</tilted></_>
    <_>
      <rects>
        <_>
          24 14 3 15 -1.</_>
        <_>
          24 19 3 5 3.</_></rects>
      <tilted>0</tilted></_>
    <_>
      <rects>
        <_>
          25 22 4 6 -1.</_>
        <_>
          25 25 4 3 2.</_></rects>
      <tilted>0</tilted></_>
    <_>
      <rects>
        <_>
          32 15 18 13 -1.</_>
        <_>
          38 15 6 13 3.</_></rects>
      <tilted>0</tilted></_>
    <_>
      <rects>
        <_>
          32 17 10 12 -1.</_>
        <_>
          37 17 5 12 2.</_></rects>
      <tilted>0</tilted></_>
    <_>
      <rects>
        <_>
          32 20 12 12 -1.</_>
        <_>
          38 20 6 12 2.</_></rects>
      <tilted>0</tilted></_>
    <_>
      <rects>
        <_>
          33 9 2 10 -1.</_>
        <_>
          33 14 2 5 2.</_></rects>
      <tilted>0</tilted></_>
    <_>
      <rects>
        <_>
          33 13 7 8 -1.</_>
        <_>
          33 17 7 4 2.</_></rects>
      <tilted>0</tilted></_>
    <_>
      <rects>
        <_>
          33 21 4 9 -1.</_>
        <_>
          35 21 2 9 2.</_></rects>
      <tilted>0</tilted></_>
    <_>
      <rects>
        <_>
          33 24 4 5 -1.</_>
        <_>
          35 24 2 5 2.</_></rects>
      <tilted>0</tilted></_>
    <_>
      <rects>
        <_>
          34 17 12 13 -1.</_>
        <_>
          38 17 4 13 3.</_></rects>
      <tilted>0</tilted></_>
    <_>
      <rects>
        <_>
          34 18 15 15 -1.</_>
        <_>
          39 18 5 15 3.</_></rects>
      <tilted>0</tilted></_>
    <_>
      <rects>
        <_>
          37 19 1 15 -1.</_>
        <_>
          37 24 1 5 3.</_></rects>
      <tilted>0</tilted></_>
    <_>
      <rects>
        <_>
          37 26 6 3 -1.</_>
        <_>
          40 26 3 3 2.</_></rects>
      <tilted>0</tilted></_>
    <_>
      <rects>
        <_>
          39 21 4 3 -1.</_>
        <_>
          41 21 2 3 2.</_></rects>
      <tilted>0</tilted></_>
    <_>
      <rects>
        <_>
          40 27 2 4 -1.</_>
        <_>
          41 27 1 4 2.</_></rects>
      <tilted>0</tilted></_>
    <_>
      <rects>
        <_>
          41 23 2 6 -1.</_>
        <_>
          42 23 1 6 2.</_></rects>
      <tilted>0</tilted></_>
    <_>
      <rects>
        <_>
          41 24 3 4 -1.</_>
        <_>
          42 24 1 4 3.</_></rects>
      <tilted>0</tilted></_>
    <_>
      <rects>
        <_>
          42 23 2 5 -1.</_>
        <_>
          43 23 1 5 2.</_></rects>
      <tilted>0</tilted></_>
    <_>
      <rects>
        <_>
          44 12 6 38 -1.</_>
        <_>
          47 12 3 38 2.</_></rects>
      <tilted>0</tilted></_>
    <_>
      <rects>
        <_>
          46 18 4 16 -1.</_>
        <_>
          48 18 2 16 2.</_></rects>
      <tilted>0</tilted></_></features></cascade>
</opencv_storage>
