<?xml version="1.0"?>
<opencv_storage>
<stage3>
  <maxWeakCount>5</maxWeakCount>
  <stageThreshold>-1.1821016073226929e+00</stageThreshold>
  <weakClassifiers>
    <_>
      <internalNodes>
        0 -1 30531 2.6713669300079346e-02</internalNodes>
      <leafValues>
        -8.5982906818389893e-01 6.6335695981979370e-01</leafValues></_>
    <_>
      <internalNodes>
        0 -1 67722 2.7982536703348160e-02</internalNodes>
      <leafValues>
        -7.0012950897216797e-01 5.6628483533859253e-01</leafValues></_>
    <_>
      <internalNodes>
        0 -1 58130 -4.0272250771522522e-03</internalNodes>
      <leafValues>
        5.3000277280807495e-01 -6.8913483619689941e-01</leafValues></_>
    <_>
      <internalNodes>
        0 -1 60584 8.2907704636454582e-03</internalNodes>
      <leafValues>
        -6.2220835685729980e-01 5.3235363960266113e-01</leafValues></_>
    <_>
      <internalNodes>
        0 -1 38936 -2.3365677043329924e-04</internalNodes>
      <leafValues>
        4.1765961050987244e-01 -7.9635179042816162e-01</leafValues></_></weakClassifiers></stage3>
</opencv_storage>
